{
  "type": "NeuralNetwork",
  "sizes": [
    54,
    24,
    16,
    8,
    9
  ],
  "layers": [
    {
      "weights": [],
      "biases": []
    },
    {
      "weights": [
        [
          5.602310657501221,
          -0.08139802515506744,
          -2.1177783012390137,
          -6.6341962814331055,
          -6.31675910949707,
          -4.891918659210205,
          1.9910151958465576,
          2.0299594402313232,
          0.8131521940231323,
          -8.246358871459961,
          -6.421384811401367,
          -1.2068779468536377,
          -0.33772778511047363,
          -2.7092974185943604,
          -3.5405561923980713,
          -4.3720927238464355,
          -0.49302417039871216,
          -0.4978625774383545,
          -1.639775276184082,
          -3.1885485649108887,
          1.3369895219802856,
          0.1843220591545105,
          -3.0529944896698,
          -4.5243706703186035,
          -2.2130868434906006,
          1.845541000366211,
          -2.7650132179260254,
          2.9560775756835938,
          -0.7191336750984192,
          -0.18716548383235931,
          0.03362897410988808,
          -5.937473297119141,
          -1.9945708513259888,
          0.1875709444284439,
          1.6233469247817993,
          -0.11911781877279282,
          -1.027411699295044,
          -1.7609755992889404,
          -4.891740798950195,
          -4.2079997062683105,
          0.03142201900482178,
          -5.164222717285156,
          3.558872938156128,
          -2.76070499420166,
          1.597935438156128,
          2.4429826736450195,
          2.6187868118286133,
          9.61782169342041,
          11.981748580932617,
          6.554337501525879,
          1.1518476009368896,
          3.223914861679077,
          -6.148111343383789,
          -2.0765042304992676
        ],
        [
          4.303898334503174,
          -0.09206275641918182,
          9.449996948242188,
          -9.257137298583984,
          2.1453351974487305,
          -14.132292747497559,
          -1.2488768100738525,
          0.14315105974674225,
          1.5048283338546753,
          5.513588905334473,
          6.484928131103516,
          -0.9713414311408997,
          -2.365473508834839,
          -2.2186970710754395,
          1.301957368850708,
          8.526399612426758,
          -2.0639874935150146,
          10.33508586883545,
          -4.396471977233887,
          -0.7921544313430786,
          -0.5988964438438416,
          3.316681385040283,
          -0.6570830345153809,
          -3.115246295928955,
          2.317190408706665,
          0.2831031382083893,
          -2.118443250656128,
          -7.873004913330078,
          -1.1168537139892578,
          -3.6950435638427734,
          -0.254745751619339,
          -1.562831997871399,
          -1.2437999248504639,
          -4.090233325958252,
          -1.6143338680267334,
          5.610682964324951,
          0.710725724697113,
          2.2443184852600098,
          -5.276139259338379,
          2.116179943084717,
          -0.07924329489469528,
          1.2711483240127563,
          -8.508548736572266,
          0.9565973877906799,
          5.164974212646484,
          -1.0997326374053955,
          -3.2571585178375244,
          -1.1051381826400757,
          5.430501937866211,
          -7.142610549926758,
          0.016214603558182716,
          0.7952123880386353,
          -4.535408020019531,
          -7.39391565322876
        ],
        [
          -0.4061538279056549,
          0.23698343336582184,
          -0.06889810413122177,
          2.323479175567627,
          6.112239837646484,
          -1.4225349426269531,
          -2.430666446685791,
          0.01244268473237753,
          -0.9008014798164368,
          -2.0971200466156006,
          -7.321188449859619,
          -5.714466094970703,
          -0.2769714593887329,
          -0.37103721499443054,
          -0.760653018951416,
          -1.3021315336227417,
          1.9316389560699463,
          -7.161736488342285,
          -8.686737060546875,
          1.828307032585144,
          1.549743413925171,
          -0.8482876420021057,
          1.3072593212127686,
          -2.4826817512512207,
          2.604069471359253,
          0.006758245173841715,
          2.4595155715942383,
          6.5234293937683105,
          2.0448360443115234,
          -1.8246817588806152,
          0.1215817928314209,
          -8.026793479919434,
          -5.286730766296387,
          3.731613874435425,
          7.543970108032227,
          -0.6466405987739563,
          -1.7896183729171753,
          0.22990189492702484,
          -3.3515543937683105,
          2.9480252265930176,
          0.17369221150875092,
          7.321110725402832,
          -1.5969834327697754,
          0.8809158205986023,
          -5.9947967529296875,
          3.5749731063842773,
          -3.350196361541748,
          -0.8813273906707764,
          -4.122253894805908,
          -1.268865704536438,
          1.9830883741378784,
          -5.5346598625183105,
          -2.1347508430480957,
          -0.27923011779785156
        ],
        [
          2.6032638549804688,
          0.19871163368225098,
          -0.3035928010940552,
          -1.838097333908081,
          7.3606085777282715,
          -11.555290222167969,
          2.9671242237091064,
          6.737884044647217,
          7.565310478210449,
          4.955690383911133,
          1.0820854902267456,
          0.8089921474456787,
          -1.0747082233428955,
          -1.2181427478790283,
          -3.722588062286377,
          -4.594019412994385,
          -2.237791061401367,
          -3.6517093181610107,
          1.1973193883895874,
          1.3296589851379395,
          0.5823832750320435,
          5.6205573081970215,
          1.952462077140808,
          1.2306679487228394,
          -1.5037814378738403,
          0.63234943151474,
          0.6150730848312378,
          -1.314042329788208,
          4.20820951461792,
          -4.954512596130371,
          0.12218064069747925,
          -9.00440502166748,
          -0.8991585969924927,
          -6.07701301574707,
          -0.11224493384361267,
          -1.1012324094772339,
          0.8159209489822388,
          -1.8899424076080322,
          -9.071866989135742,
          -1.5314809083938599,
          -0.02134202979505062,
          -0.6390394568443298,
          -1.9084664583206177,
          1.1903539896011353,
          -7.61065149307251,
          3.978705644607544,
          -2.00879168510437,
          0.38360509276390076,
          1.424883246421814,
          2.9458022117614746,
          7.45733118057251,
          2.6254050731658936,
          0.5514861345291138,
          -0.7896047830581665
        ],
        [
          0.0029239908326417208,
          -0.12071038037538528,
          5.180590629577637,
          2.5335538387298584,
          -2.0795016288757324,
          0.21966707706451416,
          -0.6377549171447754,
          -3.7932112216949463,
          -0.7093258500099182,
          2.1811139583587646,
          -2.5998148918151855,
          -1.3739981651306152,
          1.8917064666748047,
          1.2052816152572632,
          -3.2715561389923096,
          0.8264780640602112,
          -5.7807183265686035,
          -0.32985034584999084,
          3.8945677280426025,
          1.698724627494812,
          0.08060385286808014,
          0.738542914390564,
          -2.0413002967834473,
          -1.3256324529647827,
          -1.2718933820724487,
          3.1361172199249268,
          -7.343616962432861,
          5.391291618347168,
          -5.697518825531006,
          3.196087598800659,
          0.3685629963874817,
          6.523514747619629,
          -5.288385391235352,
          7.1228928565979,
          -2.4177374839782715,
          -2.025092124938965,
          -2.0238380432128906,
          -0.5793813467025757,
          3.229809284210205,
          3.4108378887176514,
          0.083194799721241,
          1.4780182838439941,
          -0.9270702004432678,
          1.762224555015564,
          -6.62771463394165,
          4.088809490203857,
          0.9297782778739929,
          2.8134446144104004,
          -1.836432695388794,
          4.654680252075195,
          -1.329150915145874,
          -0.04088268801569939,
          0.20305760204792023,
          -2.4001853466033936
        ],
        [
          3.455244779586792,
          -0.06054283678531647,
          4.292037487030029,
          2.5858418941497803,
          4.515822410583496,
          0.10970687866210938,
          -1.2725335359573364,
          7.009756565093994,
          -2.5266714096069336,
          -2.883568048477173,
          -0.7841324806213379,
          -2.986696481704712,
          -1.383790135383606,
          2.112910747528076,
          6.898053169250488,
          0.7754554152488708,
          4.399664878845215,
          -10.455349922180176,
          1.446218490600586,
          -3.1516497135162354,
          -0.058015208691358566,
          1.8844798803329468,
          0.2653184235095978,
          0.5875310301780701,
          0.06774245202541351,
          -1.5117594003677368,
          0.23062142729759216,
          -0.7956885099411011,
          -3.076995611190796,
          -4.842789649963379,
          -0.03417227044701576,
          -1.5643099546432495,
          1.1874752044677734,
          -0.9631737470626831,
          6.405558109283447,
          6.267159461975098,
          0.5600458979606628,
          3.8486270904541016,
          -3.9965603351593018,
          -4.067656993865967,
          -0.0789337307214737,
          -0.4306173324584961,
          -12.096968650817871,
          -0.10700780153274536,
          0.9104894995689392,
          -3.80568790435791,
          5.0731377601623535,
          -5.397576332092285,
          2.664018392562866,
          3.7345755100250244,
          2.766946315765381,
          -0.8765047192573547,
          1.0814635753631592,
          1.801693320274353
        ],
        [
          -0.06208684667944908,
          0.13411778211593628,
          2.9389376640319824,
          -5.00919771194458,
          -4.203029155731201,
          -0.373637855052948,
          -0.46235427260398865,
          -0.47887229919433594,
          -2.0648062229156494,
          3.5730464458465576,
          0.2461402714252472,
          -4.128746032714844,
          2.8526628017425537,
          1.056513786315918,
          1.9314261674880981,
          0.13746732473373413,
          1.1137744188308716,
          -5.6659746170043945,
          -0.9166593551635742,
          -1.7999647855758667,
          2.3280255794525146,
          0.08769085258245468,
          -2.327375888824463,
          -4.835676670074463,
          -0.4217159152030945,
          0.034919627010822296,
          0.30783912539482117,
          1.2272982597351074,
          3.541884660720825,
          5.84533166885376,
          0.4650045931339264,
          -8.859848976135254,
          -0.7892611622810364,
          -3.10284686088562,
          0.3815353810787201,
          1.9963113069534302,
          2.0375328063964844,
          -1.2237931489944458,
          -5.388828754425049,
          2.929982900619507,
          -0.10928967595100403,
          -3.3914759159088135,
          -0.5422052145004272,
          -3.8183887004852295,
          11.181620597839355,
          1.4989745616912842,
          2.9974265098571777,
          3.417609453201294,
          3.2769460678100586,
          -0.03163528814911842,
          1.6083223819732666,
          1.6080951690673828,
          -3.2263119220733643,
          -4.88377571105957
        ],
        [
          4.002649784088135,
          0.19328778982162476,
          -0.8791975378990173,
          0.7983782887458801,
          -0.34050387144088745,
          1.6880981922149658,
          2.109020233154297,
          6.282057762145996,
          2.800424337387085,
          0.756721019744873,
          -1.724083662033081,
          -2.9710533618927,
          -1.2889134883880615,
          -1.3403898477554321,
          -7.532933712005615,
          -4.230858325958252,
          -3.8317043781280518,
          -2.4048571586608887,
          -6.019408226013184,
          -0.13960595428943634,
          -0.6841410398483276,
          -0.9611102938652039,
          -2.2868359088897705,
          4.986363887786865,
          5.523519039154053,
          -2.283967971801758,
          -1.0460822582244873,
          4.956194877624512,
          1.2516995668411255,
          -6.094353675842285,
          -0.1731720268726349,
          6.403713226318359,
          1.0949820280075073,
          3.063051462173462,
          -0.9519853591918945,
          3.1791305541992188,
          -1.5719351768493652,
          -2.5396695137023926,
          -2.4557788372039795,
          0.08713077753782272,
          0.12641774117946625,
          -3.4940855503082275,
          4.450674533843994,
          -2.8407320976257324,
          5.95150089263916,
          0.5513496398925781,
          1.224179983139038,
          -1.2378253936767578,
          -0.4804677367210388,
          3.365100622177124,
          -0.5098281502723694,
          5.662876605987549,
          -0.15828509628772736,
          -2.9799246788024902
        ],
        [
          5.836689472198486,
          0.018343178555369377,
          0.8786188960075378,
          -6.427126884460449,
          0.2911769151687622,
          -4.495543479919434,
          -2.820101261138916,
          2.2081637382507324,
          -2.8581695556640625,
          -8.42672348022461,
          -5.460817337036133,
          -3.2296359539031982,
          0.17652973532676697,
          1.7645734548568726,
          2.4789185523986816,
          0.7022985219955444,
          1.841871738433838,
          4.665717601776123,
          -5.285913944244385,
          -5.032362461090088,
          0.010133057832717896,
          -1.077231526374817,
          -4.324945449829102,
          1.1447972059249878,
          0.2570537030696869,
          -3.3749823570251465,
          -1.057389259338379,
          -5.152520179748535,
          0.011685432866215706,
          0.3912357985973358,
          0.05773526802659035,
          -5.14642858505249,
          0.07744951546192169,
          6.207706451416016,
          -5.787153244018555,
          1.552717685699463,
          0.07230956852436066,
          -1.5711466073989868,
          -1.707948088645935,
          -2.89374041557312,
          0.1450687199831009,
          -4.356690883636475,
          -3.970987319946289,
          4.449887275695801,
          1.8961910009384155,
          -2.3652267456054688,
          -4.509288311004639,
          -1.3010748624801636,
          9.119120597839355,
          1.333068609237671,
          -4.2668585777282715,
          -0.699773907661438,
          -2.175215721130371,
          -0.5673972964286804
        ],
        [
          -3.349177122116089,
          -0.09106474369764328,
          2.4186673164367676,
          -1.5117789506912231,
          -2.130647897720337,
          2.242945432662964,
          4.43378210067749,
          3.743350028991699,
          8.16007137298584,
          2.045194149017334,
          0.7795602083206177,
          -0.06886326521635056,
          -1.7312650680541992,
          -0.0230856966227293,
          -2.133159637451172,
          4.661614418029785,
          -8.945511817932129,
          2.237889289855957,
          0.04942239075899124,
          2.78875994682312,
          -0.012978210113942623,
          -3.1672348976135254,
          3.029844284057617,
          -4.3046770095825195,
          -6.9168219566345215,
          -3.2629597187042236,
          -1.999393343925476,
          -1.402250051498413,
          0.8877586722373962,
          -0.1986137330532074,
          -0.03118148259818554,
          6.272045612335205,
          -3.7792208194732666,
          0.43189576268196106,
          -2.642003297805786,
          1.461946964263916,
          0.3661898672580719,
          2.4896910190582275,
          0.6635082960128784,
          0.4875332713127136,
          0.04610656946897507,
          5.146459102630615,
          -2.1990671157836914,
          3.1234450340270996,
          -3.9723193645477295,
          -3.791578531265259,
          -5.520854473114014,
          -1.5433837175369263,
          -3.7215561866760254,
          -3.7799973487854004,
          2.440464973449707,
          5.605306148529053,
          -0.6719698309898376,
          2.4878292083740234
        ],
        [
          0.10578599572181702,
          0.24912992119789124,
          5.839075088500977,
          3.172379493713379,
          -1.4992942810058594,
          3.0777430534362793,
          5.7402024269104,
          -1.9219071865081787,
          -2.799734592437744,
          -1.8979424238204956,
          3.5687551498413086,
          -2.590555191040039,
          -1.7338578701019287,
          0.17619405686855316,
          1.418538212776184,
          -3.866431951522827,
          6.424494743347168,
          -3.6895318031311035,
          1.1623979806900024,
          -0.716045081615448,
          -0.44325122237205505,
          1.9699680805206299,
          -0.6010499596595764,
          3.1426820755004883,
          2.4836502075195312,
          -1.1137994527816772,
          -1.0476568937301636,
          0.7043279409408569,
          -1.2153264284133911,
          -3.3671138286590576,
          -0.6158407330513,
          2.8583734035491943,
          1.7545335292816162,
          7.266582012176514,
          5.496862888336182,
          1.9109888076782227,
          1.3514623641967773,
          -10.82658863067627,
          -1.514621615409851,
          -3.7866158485412598,
          0.14270421862602234,
          -2.9872870445251465,
          -5.7021894454956055,
          -3.1070191860198975,
          -2.601884365081787,
          1.6547266244888306,
          -4.57643985748291,
          -3.414424180984497,
          2.9628169536590576,
          -2.7776637077331543,
          -4.835782051086426,
          -1.9155925512313843,
          1.8392585515975952,
          -2.9155831336975098
        ],
        [
          -7.473138809204102,
          0.0795830562710762,
          0.8843509554862976,
          -4.791815280914307,
          -5.501640796661377,
          1.487953782081604,
          -7.9450201988220215,
          0.8339735865592957,
          3.541465997695923,
          1.4488106966018677,
          2.7474470138549805,
          -0.5944060683250427,
          2.5725672245025635,
          -2.1646041870117188,
          -4.146296977996826,
          -4.65147590637207,
          4.939209461212158,
          -2.4937169551849365,
          2.8693830966949463,
          4.824923038482666,
          -0.39138486981391907,
          -2.4287333488464355,
          3.1094226837158203,
          5.7205071449279785,
          3.283372163772583,
          -0.17329198122024536,
          3.360045909881592,
          3.686272144317627,
          2.676485300064087,
          0.19282081723213196,
          -0.03915442153811455,
          1.6298223733901978,
          7.383693218231201,
          -0.8154692053794861,
          1.2264127731323242,
          -4.085678577423096,
          -0.05797389894723892,
          0.09609498083591461,
          3.902635335922241,
          3.0722947120666504,
          0.12057758867740631,
          -5.522439479827881,
          0.5924252867698669,
          4.522218227386475,
          -2.8925414085388184,
          -1.574978232383728,
          3.5630972385406494,
          1.3653390407562256,
          -4.6599907875061035,
          -2.8600101470947266,
          0.9558555483818054,
          1.1578861474990845,
          -0.3107971251010895,
          -4.853505611419678
        ],
        [
          3.063595771789551,
          0.6352460384368896,
          7.385608196258545,
          7.380211353302002,
          0.7637892961502075,
          4.937814235687256,
          -0.808388352394104,
          -2.019352436065674,
          -0.20123666524887085,
          4.021089553833008,
          0.19997094571590424,
          -0.011684857308864594,
          -1.2054861783981323,
          -0.9502120614051819,
          -4.098228931427002,
          -2.728276014328003,
          -3.241316795349121,
          -8.611227989196777,
          -4.41116189956665,
          2.2518553733825684,
          1.7476600408554077,
          4.1230010986328125,
          1.5270154476165771,
          0.14688925445079803,
          -1.8359904289245605,
          -2.701700210571289,
          -3.303140878677368,
          1.5202986001968384,
          1.5284385681152344,
          -1.8281960487365723,
          0.2931780517101288,
          -9.4048490524292,
          1.7679678201675415,
          -0.4626214802265167,
          5.414507865905762,
          -4.270276069641113,
          -2.066453456878662,
          2.45505690574646,
          -0.40133947134017944,
          1.4581578969955444,
          -0.09496290981769562,
          -4.062107563018799,
          3.624098300933838,
          2.555100917816162,
          -4.225402355194092,
          -3.519451856613159,
          1.3698596954345703,
          -2.48862624168396,
          -2.1284279823303223,
          4.0133442878723145,
          3.0145063400268555,
          2.186720132827759,
          0.6372944116592407,
          1.4616155624389648
        ],
        [
          0.5705275535583496,
          0.2615847587585449,
          -1.2519819736480713,
          -5.383805751800537,
          3.21940541267395,
          -2.591949701309204,
          0.269401490688324,
          1.5026211738586426,
          0.6995757818222046,
          1.0480196475982666,
          -2.77994441986084,
          -4.80135440826416,
          3.9832303524017334,
          5.486887454986572,
          1.8822896480560303,
          -3.8953518867492676,
          10.943278312683105,
          -4.299592018127441,
          3.231496810913086,
          2.3592352867126465,
          -1.2290761470794678,
          1.0955146551132202,
          2.0174882411956787,
          1.891239047050476,
          -1.2702445983886719,
          0.6006588339805603,
          -9.968417167663574,
          9.822566032409668,
          1.4908299446105957,
          -2.2002038955688477,
          -0.2651284635066986,
          -3.358092784881592,
          2.7444567680358887,
          -0.18369753658771515,
          -0.7212669253349304,
          -0.3664573132991791,
          -1.6190646886825562,
          0.6389951109886169,
          -2.7764432430267334,
          -1.4916008710861206,
          -0.164529949426651,
          -3.923266649246216,
          5.408111095428467,
          4.361397743225098,
          -1.8626229763031006,
          -1.1354663372039795,
          8.369474411010742,
          -3.008039951324463,
          -6.203031539916992,
          2.8669114112854004,
          5.456639766693115,
          -1.5085361003875732,
          1.0029977560043335,
          0.768315315246582
        ],
        [
          -0.8217332363128662,
          -0.0031493224669247866,
          -1.3274435997009277,
          3.7703847885131836,
          2.727874994277954,
          -0.5033841133117676,
          3.3976657390594482,
          0.942383348941803,
          5.319704532623291,
          2.1434545516967773,
          -1.1351838111877441,
          -0.5503445267677307,
          -0.9223257899284363,
          -0.42815542221069336,
          1.351660132408142,
          -0.3270881175994873,
          -1.6775721311569214,
          -3.061845541000366,
          -2.871269464492798,
          -0.20591318607330322,
          -0.716877281665802,
          1.1912602186203003,
          1.0369620323181152,
          0.04909712076187134,
          1.060074806213379,
          -1.1505376100540161,
          1.2028645277023315,
          -2.471414566040039,
          0.44029057025909424,
          -4.200106143951416,
          -0.10498230904340744,
          -2.1578903198242188,
          0.9600311517715454,
          2.698765516281128,
          6.17008113861084,
          3.8791937828063965,
          -0.11463172733783722,
          -2.563117265701294,
          -0.6389596462249756,
          -3.983689785003662,
          0.05038051679730415,
          2.9716365337371826,
          2.0697848796844482,
          -7.69263219833374,
          1.364324927330017,
          0.9574088454246521,
          1.9961134195327759,
          1.6042671203613281,
          0.6076797842979431,
          1.0421370267868042,
          3.3828911781311035,
          9.610635757446289,
          -0.04095812886953354,
          -3.086568593978882
        ],
        [
          4.734128952026367,
          0.16894274950027466,
          -3.8277080059051514,
          -1.1848759651184082,
          4.666691780090332,
          -5.032172679901123,
          -1.885846495628357,
          0.4391366243362427,
          3.9534316062927246,
          4.366694927215576,
          2.7424864768981934,
          2.330307960510254,
          3.6404712200164795,
          1.2092899084091187,
          -2.6830992698669434,
          -1.0930737257003784,
          -2.710928440093994,
          1.0309340953826904,
          1.1601946353912354,
          2.538020372390747,
          0.2495841383934021,
          -1.279455542564392,
          1.0171252489089966,
          3.7442128658294678,
          -1.604179859161377,
          -0.7661528587341309,
          2.549616813659668,
          -7.104218006134033,
          -0.37099677324295044,
          1.2432489395141602,
          -0.2213495969772339,
          4.518517017364502,
          1.9763904809951782,
          1.5262681245803833,
          -3.5889062881469727,
          0.13649491965770721,
          -4.676475524902344,
          -1.6691910028457642,
          -1.4234740734100342,
          -4.811127185821533,
          0.002099044155329466,
          0.545315682888031,
          7.966670989990234,
          -1.1633950471878052,
          4.78939151763916,
          -0.7464376091957092,
          2.2599384784698486,
          0.7819228768348694,
          4.4950432777404785,
          -3.839674234390259,
          -0.9501297473907471,
          3.7559096813201904,
          -3.0779011249542236,
          0.6748347282409668
        ],
        [
          5.356626987457275,
          0.053273629397153854,
          -0.5299394726753235,
          -1.6616162061691284,
          7.635063648223877,
          2.18796443939209,
          -0.07587697356939316,
          0.18481333553791046,
          2.9525396823883057,
          -0.3217338025569916,
          -2.672952890396118,
          -5.190201759338379,
          0.9503065943717957,
          0.6715428233146667,
          -2.551727771759033,
          -0.12997320294380188,
          -3.8125786781311035,
          -5.766787528991699,
          3.3739430904388428,
          -0.8557062149047852,
          1.0732017755508423,
          2.251067638397217,
          0.23542332649230957,
          -4.404759883880615,
          5.550999164581299,
          -1.8298107385635376,
          7.1299357414245605,
          -1.0916187763214111,
          1.4931529760360718,
          -0.26516085863113403,
          -0.16233813762664795,
          -4.24200963973999,
          -2.633244276046753,
          3.43449068069458,
          5.302119255065918,
          -1.6507656574249268,
          2.200162172317505,
          4.046330451965332,
          2.4318394660949707,
          -3.3354601860046387,
          -0.002767424564808607,
          -1.8500698804855347,
          -12.428494453430176,
          -3.3948850631713867,
          -3.147963762283325,
          -6.36583948135376,
          -4.355818748474121,
          7.959128379821777,
          5.98912239074707,
          2.5540506839752197,
          0.3933878242969513,
          0.14274094998836517,
          2.9495341777801514,
          -2.3533101081848145
        ],
        [
          -0.7262064218521118,
          0.1871759593486786,
          8.09152889251709,
          3.1618990898132324,
          1.8832011222839355,
          1.5108572244644165,
          2.1514222621917725,
          5.309066295623779,
          4.864421367645264,
          -6.938615798950195,
          -4.0882110595703125,
          -0.3548547923564911,
          1.763443112373352,
          -0.15426050126552582,
          0.26747646927833557,
          -3.4955601692199707,
          -3.347008228302002,
          -8.52703857421875,
          -0.02691759541630745,
          -2.629758596420288,
          1.028049349784851,
          7.001257419586182,
          -2.3298845291137695,
          1.3588626384735107,
          -0.10945820808410645,
          1.0798476934432983,
          -6.657618045806885,
          2.942903757095337,
          1.7869778871536255,
          0.9945509433746338,
          0.46527335047721863,
          4.447144985198975,
          -0.2313230335712433,
          -1.8451650142669678,
          -0.306937038898468,
          3.5124967098236084,
          0.4367821514606476,
          -0.9105929732322693,
          2.875842809677124,
          -2.3503401279449463,
          -0.12881691753864288,
          2.169452667236328,
          0.7146562933921814,
          -2.366060256958008,
          -1.6189249753952026,
          -4.191583633422852,
          -3.5465757846832275,
          -11.872612953186035,
          3.0633411407470703,
          -0.13849101960659027,
          -3.3593850135803223,
          -4.005514144897461,
          -1.0366246700286865,
          0.21721762418746948
        ],
        [
          -0.402278333902359,
          0.09055666625499725,
          -4.814183235168457,
          -1.49674391746521,
          -4.112779140472412,
          2.283270835876465,
          1.4503003358840942,
          12.722018241882324,
          -0.9205833673477173,
          1.8884224891662598,
          -0.2077718824148178,
          1.112774133682251,
          -3.631093978881836,
          -5.893128395080566,
          -4.554353713989258,
          -0.5838587284088135,
          -3.30770206451416,
          -0.6663693785667419,
          2.5441343784332275,
          -4.818226337432861,
          0.18316595256328583,
          0.3602447807788849,
          0.5560060739517212,
          0.19820867478847504,
          -0.003991444129496813,
          2.9394047260284424,
          -5.478305816650391,
          2.8329758644104004,
          -3.782499074935913,
          7.950323104858398,
          0.08412821590900421,
          -8.354842185974121,
          -1.9779658317565918,
          -8.834205627441406,
          5.139703750610352,
          -0.6620706915855408,
          -0.8489542007446289,
          5.3378167152404785,
          7.681625843048096,
          1.939261794090271,
          0.06943755596876144,
          -0.39575567841529846,
          5.264173984527588,
          -3.6274263858795166,
          -0.09531692415475845,
          5.643949031829834,
          -0.4806680679321289,
          -1.437163233757019,
          -1.7424721717834473,
          -0.5620215535163879,
          -1.9546136856079102,
          0.4011514186859131,
          -2.038097620010376,
          0.7852965593338013
        ],
        [
          -3.452000141143799,
          -0.03426903486251831,
          -7.404799938201904,
          1.2447878122329712,
          -7.497317790985107,
          -5.3678693771362305,
          -2.3022875785827637,
          -1.3937712907791138,
          -2.8548810482025146,
          -0.48752209544181824,
          -0.1175074651837349,
          -1.8083319664001465,
          2.603586435317993,
          -4.109279632568359,
          5.686399936676025,
          5.563659191131592,
          -0.6838353276252747,
          -7.368502140045166,
          -1.5359960794448853,
          2.0499789714813232,
          0.1803903579711914,
          -2.5772147178649902,
          2.889281988143921,
          -1.620932698249817,
          7.842367172241211,
          0.5855656862258911,
          1.4001750946044922,
          4.106152534484863,
          -0.2579951584339142,
          -0.9975482225418091,
          0.03234865888953209,
          -2.1090822219848633,
          -3.1310598850250244,
          3.3867835998535156,
          -6.104409217834473,
          1.5400673151016235,
          -0.7314599752426147,
          2.280074119567871,
          2.368408203125,
          -0.6995605826377869,
          -0.1453264206647873,
          -0.6156439185142517,
          -4.801367282867432,
          -2.0439906120300293,
          -2.313364267349243,
          -1.9255836009979248,
          4.2787675857543945,
          3.9334516525268555,
          3.8223936557769775,
          1.6656728982925415,
          -0.4647912085056305,
          0.4527674913406372,
          2.365384101867676,
          8.238255500793457
        ],
        [
          -6.275076389312744,
          0.4612659215927124,
          3.7612454891204834,
          -4.2974138259887695,
          -0.16489969193935394,
          -4.007608890533447,
          0.8665564060211182,
          3.3362948894500732,
          -1.4899702072143555,
          -0.4721538722515106,
          -1.2670947313308716,
          0.6476539969444275,
          -3.2248897552490234,
          -1.894927740097046,
          -1.0830779075622559,
          -3.3678205013275146,
          4.3649678230285645,
          -5.613570690155029,
          -2.7002744674682617,
          -3.519009590148926,
          1.9054114818572998,
          -2.436058521270752,
          -7.007870197296143,
          0.0852956771850586,
          0.7569116353988647,
          -0.36980417370796204,
          3.711059808731079,
          2.1786258220672607,
          4.0234527587890625,
          -2.5098936557769775,
          -0.0401698499917984,
          5.72524356842041,
          -2.0648043155670166,
          6.1095781326293945,
          4.14902925491333,
          -0.6783369183540344,
          -1.0856025218963623,
          -2.929375648498535,
          -0.35481569170951843,
          1.0756516456604004,
          -0.06813087314367294,
          1.0002049207687378,
          2.5118329524993896,
          -2.8948733806610107,
          4.538431644439697,
          10.510601043701172,
          -4.87883996963501,
          0.2718106210231781,
          7.189071178436279,
          0.457383930683136,
          -0.6089312434196472,
          -4.354358196258545,
          4.408303260803223,
          0.440356969833374
        ],
        [
          1.4428917169570923,
          1.432430386543274,
          0.6193820834159851,
          7.913296222686768,
          0.23031394183635712,
          0.8593292832374573,
          4.096792697906494,
          -4.190306663513184,
          0.011869746260344982,
          -3.2076327800750732,
          2.227055072784424,
          2.370927095413208,
          3.685922861099243,
          -0.3432537317276001,
          -4.064493179321289,
          -4.086683750152588,
          -4.628085136413574,
          -1.199898600578308,
          9.271793365478516,
          -1.2861725091934204,
          0.37237605452537537,
          8.596258163452148,
          -2.28173565864563,
          2.4166903495788574,
          -2.181793689727783,
          3.6780662536621094,
          -3.7312214374542236,
          -4.285374641418457,
          -6.816458702087402,
          1.219149112701416,
          0.580751895904541,
          0.5892093777656555,
          0.30072712898254395,
          -3.215513229370117,
          0.31533920764923096,
          1.0343748331069946,
          -1.8479958772659302,
          3.4150662422180176,
          3.853203535079956,
          4.298248767852783,
          -0.154923677444458,
          -5.914880752563477,
          -1.032497763633728,
          0.30199354887008667,
          2.4129693508148193,
          -4.993463039398193,
          3.0643842220306396,
          3.9173924922943115,
          -5.21638298034668,
          -2.4821252822875977,
          -1.5879151821136475,
          -8.260980606079102,
          4.794165134429932,
          -3.231640100479126
        ],
        [
          2.8999195098876953,
          -0.09051003307104111,
          -1.66814386844635,
          -3.7416179180145264,
          -3.159099578857422,
          -5.1606221199035645,
          0.404792845249176,
          2.4093799591064453,
          4.097424030303955,
          -1.8594884872436523,
          -4.1702985763549805,
          -0.8418808579444885,
          1.7863160371780396,
          -1.029176950454712,
          -2.410141944885254,
          -1.630552053451538,
          -1.8267980813980103,
          0.7384009957313538,
          2.2109315395355225,
          6.733534812927246,
          -0.49184972047805786,
          0.9502183794975281,
          5.568948268890381,
          0.9694263339042664,
          -4.96817684173584,
          2.9617204666137695,
          -1.8982809782028198,
          -0.3922552466392517,
          1.6137405633926392,
          0.7492508292198181,
          0.1442744880914688,
          -0.7678350210189819,
          1.6182787418365479,
          -3.1303067207336426,
          -1.0534119606018066,
          -0.268259197473526,
          -2.001218557357788,
          -2.028043270111084,
          -0.7979348301887512,
          3.210423231124878,
          0.11197945475578308,
          -7.641469955444336,
          -4.576940536499023,
          -0.3997803330421448,
          -8.575952529907227,
          -0.6500119566917419,
          -1.0943957567214966,
          -4.296736240386963,
          -2.3091273307800293,
          0.0501384437084198,
          3.301638603210449,
          0.07120642066001892,
          2.4152300357818604,
          -2.081012487411499
        ],
        [
          -1.3026835918426514,
          0.1605786383152008,
          -2.9884655475616455,
          -3.452324628829956,
          4.135430812835693,
          1.7042359113693237,
          -0.01210633572191,
          0.022976823151111603,
          3.6582489013671875,
          2.8367886543273926,
          1.1288336515426636,
          -1.9847055673599243,
          -1.4122968912124634,
          -5.314021110534668,
          0.5181894302368164,
          2.8996284008026123,
          4.681746959686279,
          -1.1179674863815308,
          8.242307662963867,
          3.3548951148986816,
          -0.17088037729263306,
          -3.4567553997039795,
          3.8017799854278564,
          -6.788516998291016,
          -4.973643779754639,
          -2.004462957382202,
          6.283361911773682,
          3.0168840885162354,
          -6.3047776222229,
          -1.8369463682174683,
          -0.2640291750431061,
          5.122694969177246,
          0.18814769387245178,
          3.7132723331451416,
          -0.5646130442619324,
          1.0885475873947144,
          0.7272211909294128,
          -1.5079929828643799,
          -2.3940622806549072,
          0.23488587141036987,
          0.003870611544698477,
          -2.543182611465454,
          1.529566764831543,
          -3.1303696632385254,
          -4.531718730926514,
          2.154432535171509,
          -2.7593767642974854,
          -1.1255371570587158,
          -0.17376843094825745,
          -1.1984999179840088,
          -0.3585556447505951,
          6.586203098297119,
          3.2782323360443115,
          0.47092002630233765
        ]
      ],
      "biases": [
        -1.8619643449783325,
        -0.7295328378677368,
        -0.33569782972335815,
        -2.195958375930786,
        1.1261115074157715,
        -1.514238715171814,
        -0.497763991355896,
        -0.6658625602722168,
        -1.0648412704467773,
        0.3212980329990387,
        -0.7991600036621094,
        1.2269521951675415,
        0.01665439084172249,
        -0.9894867539405823,
        -0.8777846693992615,
        -1.3681707382202148,
        -0.07430930435657501,
        0.2351401299238205,
        1.9404139518737793,
        0.3568919599056244,
        0.05630755051970482,
        1.3642791509628296,
        0.37793412804603577,
        -0.28420358896255493
      ]
    },
    {
      "weights": [
        [
          1.3469860553741455,
          -1.3344159126281738,
          -3.5687081813812256,
          0.9492987394332886,
          2.5071821212768555,
          -4.931859016418457,
          -0.721817135810852,
          -4.91377067565918,
          1.8150215148925781,
          -3.240457534790039,
          -6.076090335845947,
          5.084649562835693,
          2.3350515365600586,
          -4.500098705291748,
          -1.1878416538238525,
          1.7798337936401367,
          -4.049604892730713,
          8.391724586486816,
          1.9286655187606812,
          -3.349926710128784,
          -2.251176357269287,
          6.2033467292785645,
          7.122231960296631,
          -4.016595363616943
        ],
        [
          5.5244669914245605,
          -1.0853564739227295,
          5.280968189239502,
          3.9163599014282227,
          -0.0438116230070591,
          1.3633798360824585,
          5.140493869781494,
          -9.183749198913574,
          2.9469919204711914,
          2.3067309856414795,
          -3.558093786239624,
          -6.675861358642578,
          -1.2364773750305176,
          -6.537449359893799,
          -2.2802648544311523,
          -4.7182464599609375,
          8.396703720092773,
          1.0376960039138794,
          0.8720393776893616,
          4.291867256164551,
          5.515583038330078,
          6.484742641448975,
          1.2702536582946777,
          -1.4451420307159424
        ],
        [
          1.507840871810913,
          -4.752212047576904,
          3.7517013549804688,
          2.4891765117645264,
          -9.065549850463867,
          1.6706739664077759,
          4.281363010406494,
          2.095533847808838,
          2.4816625118255615,
          -3.8011372089385986,
          2.257014274597168,
          1.2912960052490234,
          7.274566173553467,
          -1.6252397298812866,
          7.275476932525635,
          -5.90714168548584,
          3.159569263458252,
          -5.358072757720947,
          1.6253414154052734,
          2.1586716175079346,
          4.941990852355957,
          5.444691181182861,
          -12.353923797607422,
          -0.952711820602417
        ],
        [
          3.262866258621216,
          1.4053012132644653,
          1.560731053352356,
          8.05068302154541,
          -4.33837890625,
          1.8074629306793213,
          -4.309510707855225,
          -2.7877197265625,
          -4.9966607093811035,
          0.8441820740699768,
          -5.868579864501953,
          6.217410564422607,
          4.683792591094971,
          -4.70151948928833,
          0.5936282277107239,
          -2.3598644733428955,
          4.64149808883667,
          -6.6412672996521,
          7.887639999389648,
          0.4497508108615875,
          -9.149028778076172,
          12.594860076904297,
          1.3852728605270386,
          -3.618547201156616
        ],
        [
          -3.2149689197540283,
          -6.358835697174072,
          3.511803150177002,
          3.1621882915496826,
          -1.508941411972046,
          8.173821449279785,
          -0.41990548372268677,
          -0.453661173582077,
          6.924375057220459,
          -6.9826250076293945,
          5.195587158203125,
          -5.501906394958496,
          -2.6466598510742188,
          2.006246328353882,
          2.14844012260437,
          1.3264265060424805,
          -5.228382110595703,
          3.7542645931243896,
          -0.03735426068305969,
          -2.6614954471588135,
          5.149227619171143,
          4.6522440910339355,
          7.089312553405762,
          -7.987070560455322
        ],
        [
          -6.078287601470947,
          0.45734933018684387,
          -1.6287232637405396,
          -3.0901005268096924,
          -4.91807746887207,
          2.409278631210327,
          2.827354907989502,
          2.7967166900634766,
          4.715658664703369,
          -1.379401683807373,
          0.8714913725852966,
          3.1376595497131348,
          1.109983205795288,
          1.6891473531723022,
          -0.7427111268043518,
          2.7997066974639893,
          0.025971584022045135,
          0.5601701736450195,
          -7.198614597320557,
          -0.8828054666519165,
          -5.802213191986084,
          -2.525529146194458,
          6.598429203033447,
          -8.380687713623047
        ],
        [
          -2.44345760345459,
          1.0441792011260986,
          2.5980453491210938,
          6.443086624145508,
          -4.037868976593018,
          -2.7569358348846436,
          -1.398402452468872,
          2.9866819381713867,
          5.831432342529297,
          -3.2134876251220703,
          -7.1188530921936035,
          -0.5631044507026672,
          -2.8177576065063477,
          -3.8646955490112305,
          -5.6373982429504395,
          -5.996667861938477,
          9.736534118652344,
          -8.509078979492188,
          2.7484219074249268,
          5.131248474121094,
          6.30728006362915,
          -4.631513595581055,
          2.0115628242492676,
          -0.14023283123970032
        ],
        [
          0.5696454048156738,
          1.1019209623336792,
          8.162261009216309,
          -0.3569777309894562,
          -0.2519363462924957,
          1.601218819618225,
          9.11095905303955,
          -5.068288326263428,
          1.4524128437042236,
          -2.960186243057251,
          2.733732223510742,
          -0.2751155197620392,
          -4.016275405883789,
          -5.043864727020264,
          -3.6435670852661133,
          -2.640399217605591,
          -3.018474817276001,
          -0.6927067041397095,
          3.784749746322632,
          0.6971327662467957,
          5.36509895324707,
          0.454447865486145,
          -0.00927638914436102,
          -1.5828856229782104
        ],
        [
          7.551265716552734,
          -6.168356895446777,
          3.4754960536956787,
          7.901006698608398,
          -0.6755622625350952,
          -4.6830596923828125,
          -2.7172112464904785,
          -2.0900723934173584,
          -5.8195929527282715,
          -3.4019477367401123,
          -1.668588638305664,
          -0.3824232816696167,
          10.485456466674805,
          1.415932059288025,
          -0.9343021512031555,
          7.435601711273193,
          -6.115148544311523,
          5.453232765197754,
          1.6054495573043823,
          -6.101700305938721,
          1.7534618377685547,
          5.957968235015869,
          -2.1483750343322754,
          -3.349234104156494
        ],
        [
          5.454550743103027,
          -1.1937439441680908,
          -0.6010479927062988,
          2.1833057403564453,
          12.67000961303711,
          -2.839179039001465,
          -1.6192749738693237,
          1.3326653242111206,
          -6.6516008377075195,
          -0.0501537024974823,
          -6.064940929412842,
          1.379096269607544,
          -4.235298156738281,
          -0.1651497334241867,
          -4.923978805541992,
          -4.34404993057251,
          -1.660499095916748,
          2.457101583480835,
          -0.1935175508260727,
          -2.468549966812134,
          5.9078803062438965,
          3.065373659133911,
          -1.3770238161087036,
          -0.36391976475715637
        ],
        [
          11.174684524536133,
          12.573967933654785,
          9.25625991821289,
          5.333606243133545,
          -4.3290252685546875,
          -3.944108009338379,
          -1.3304027318954468,
          -6.079975605010986,
          2.2912442684173584,
          3.646031618118286,
          3.289234161376953,
          -3.6160314083099365,
          -0.09646160900592804,
          -14.011079788208008,
          0.19451190531253815,
          -7.8674187660217285,
          3.9281978607177734,
          -2.749560594558716,
          5.012228965759277,
          2.6388163566589355,
          -0.11993128061294556,
          1.6228419542312622,
          0.13483856618404388,
          -6.5236077308654785
        ],
        [
          -4.07981014251709,
          -6.440542697906494,
          -5.094470977783203,
          -0.7156697511672974,
          2.3978710174560547,
          -0.9998134970664978,
          -0.6948721408843994,
          3.95451021194458,
          3.7148215770721436,
          -8.28527545928955,
          4.236968994140625,
          3.4567999839782715,
          -2.8357958793640137,
          2.0802886486053467,
          3.444338083267212,
          0.8647597432136536,
          3.0620486736297607,
          0.6882436275482178,
          -6.138739109039307,
          -7.983445644378662,
          -0.022270020097494125,
          -5.193678379058838,
          -2.8650848865509033,
          -0.604036271572113
        ],
        [
          -8.472502708435059,
          -2.7163729667663574,
          -4.428359508514404,
          -1.4001734256744385,
          -3.8569483757019043,
          4.712940216064453,
          3.515777111053467,
          -3.0499954223632812,
          4.664884090423584,
          -0.5165675282478333,
          -1.4975299835205078,
          3.7132108211517334,
          -1.9715964794158936,
          5.163570880889893,
          -3.962622880935669,
          -4.113884925842285,
          -2.0782711505889893,
          0.3765421211719513,
          -0.33689287304878235,
          -5.0560526847839355,
          4.254135608673096,
          8.032173156738281,
          3.2755210399627686,
          -3.7909348011016846
        ],
        [
          3.7576749324798584,
          5.138058662414551,
          6.119125843048096,
          0.8742433190345764,
          0.7024144530296326,
          -3.7953732013702393,
          6.8521294593811035,
          -1.5593371391296387,
          1.724346399307251,
          -6.341235637664795,
          -3.7990143299102783,
          -1.0803585052490234,
          -0.9734193086624146,
          -2.9627785682678223,
          6.766894817352295,
          -7.377224445343018,
          5.769657611846924,
          1.9152603149414062,
          -1.5029152631759644,
          -8.063844680786133,
          -1.7849605083465576,
          -2.3054707050323486,
          -4.892847537994385,
          -0.3831225633621216
        ],
        [
          3.2730584144592285,
          5.045722961425781,
          1.5394288301467896,
          3.825375556945801,
          4.241688251495361,
          -5.27521276473999,
          0.2459326684474945,
          3.9664440155029297,
          1.9001197814941406,
          -6.844640254974365,
          -2.6137070655822754,
          1.7030283212661743,
          2.5190634727478027,
          2.181213140487671,
          -2.244462251663208,
          -1.9126883745193481,
          -2.8121848106384277,
          -3.164966583251953,
          2.900892496109009,
          -7.353555679321289,
          0.7096970081329346,
          6.679886341094971,
          -2.775184154510498,
          -7.127442836761475
        ],
        [
          5.129284858703613,
          6.897529602050781,
          5.349098205566406,
          7.650150299072266,
          1.876244306564331,
          -5.064388275146484,
          -5.13716459274292,
          -0.4186270833015442,
          5.278120040893555,
          -7.133335113525391,
          -5.360922813415527,
          4.1982102394104,
          -3.6033987998962402,
          0.6355175375938416,
          0.32909077405929565,
          1.6181693077087402,
          -0.4669341444969177,
          0.034810855984687805,
          0.1535705029964447,
          -8.51956558227539,
          -0.8213918805122375,
          8.84791374206543,
          1.433895468711853,
          -8.948822975158691
        ]
      ],
      "biases": [
        0.03092857077717781,
        1.7709274291992188,
        0.05611804500222206,
        -0.2937191426753998,
        -1.867727518081665,
        0.42063045501708984,
        -0.893114447593689,
        -0.1754148304462433,
        -0.6360296607017517,
        -0.021104909479618073,
        -1.0945007801055908,
        -0.21008028090000153,
        -0.6726803779602051,
        0.016776947304606438,
        -1.7465027570724487,
        0.27693620324134827
      ]
    },
    {
      "weights": [
        [
          -14.043761253356934,
          4.53977632522583,
          9.230714797973633,
          10.883848190307617,
          -5.8189287185668945,
          -12.79754638671875,
          5.950909614562988,
          9.828592300415039,
          -0.9376773834228516,
          -5.850281715393066,
          7.500265598297119,
          -6.061034679412842,
          -5.805282115936279,
          -6.12631893157959,
          -4.707573413848877,
          -5.862377643585205
        ],
        [
          0.48207607865333557,
          4.770883560180664,
          2.077847480773926,
          3.2062604427337646,
          3.678893804550171,
          2.4659783840179443,
          2.906804323196411,
          1.338306188583374,
          1.497831106185913,
          -3.3352134227752686,
          2.8687584400177,
          0.7516323924064636,
          -0.41212281584739685,
          1.6637969017028809,
          3.321632146835327,
          4.033438205718994
        ],
        [
          5.095939636230469,
          -2.198611259460449,
          -2.234769582748413,
          -4.404112815856934,
          2.2509236335754395,
          0.6302196383476257,
          0.9688076972961426,
          3.6665854454040527,
          18.43699073791504,
          4.059447288513184,
          -7.2846760749816895,
          9.262152671813965,
          3.661731243133545,
          -7.970561981201172,
          8.413426399230957,
          7.388549327850342
        ],
        [
          -9.878483772277832,
          8.058655738830566,
          5.163687705993652,
          -0.6830436587333679,
          -13.648639678955078,
          6.517433166503906,
          5.94969367980957,
          3.730985164642334,
          -5.375835418701172,
          -10.008132934570312,
          11.304022789001465,
          -7.425291061401367,
          -2.4125092029571533,
          -3.8037610054016113,
          -1.455350637435913,
          -1.461108684539795
        ],
        [
          -6.132524490356445,
          -1.5722955465316772,
          -8.030271530151367,
          -6.014102935791016,
          4.59490442276001,
          3.632939100265503,
          -2.802220344543457,
          -2.2794995307922363,
          1.433936357498169,
          -1.9139628410339355,
          -4.098536491394043,
          8.062129020690918,
          -1.0911535024642944,
          -4.030783653259277,
          5.227504730224609,
          1.483618974685669
        ],
        [
          9.895493507385254,
          0.8218874335289001,
          5.202035427093506,
          5.234277248382568,
          -4.005973815917969,
          -2.386639356613159,
          4.96688175201416,
          5.166228294372559,
          2.63470721244812,
          -0.2746165096759796,
          4.270910739898682,
          -4.676487445831299,
          3.3058300018310547,
          5.0995869636535645,
          -8.268467903137207,
          -7.556764602661133
        ],
        [
          -6.294354438781738,
          -8.229985237121582,
          6.912897109985352,
          -7.546293258666992,
          10.63997745513916,
          8.895849227905273,
          -3.151778221130371,
          -6.009600639343262,
          1.1943695545196533,
          0.8796684145927429,
          -10.529853820800781,
          2.2679367065429688,
          10.417089462280273,
          4.747777938842773,
          2.148977518081665,
          -0.25542742013931274
        ],
        [
          0.38358965516090393,
          -11.350983619689941,
          -1.3144735097885132,
          -2.5088391304016113,
          4.24216890335083,
          3.7469751834869385,
          -4.761631488800049,
          -4.916721820831299,
          0.8993081450462341,
          -2.808324098587036,
          -1.8485238552093506,
          2.156571626663208,
          1.1453635692596436,
          -4.6566057205200195,
          4.838935852050781,
          3.8079051971435547
        ]
      ],
      "biases": [
        -3.127380609512329,
        -0.23397555947303772,
        -3.2968084812164307,
        1.533125877380371,
        -0.9913050532341003,
        -2.308018445968628,
        -3.2868118286132812,
        -0.8210897445678711
      ]
    },
    {
      "weights": [
        [
          -9.1466064453125,
          -8.540998458862305,
          4.699320316314697,
          2.482124090194702,
          1.4279760122299194,
          13.401378631591797,
          -14.283563613891602,
          2.5918169021606445
        ],
        [
          0.9458751678466797,
          2.1273913383483887,
          -9.36178970336914,
          2.8707852363586426,
          -3.2640390396118164,
          3.88635516166687,
          -12.250998497009277,
          -4.649493217468262
        ],
        [
          10.538661003112793,
          -3.8125803470611572,
          -0.5730759501457214,
          -14.119424819946289,
          -5.732131004333496,
          -0.21715016663074493,
          10.725247383117676,
          -23.321704864501953
        ],
        [
          -8.244391441345215,
          10.909621238708496,
          0.9508163928985596,
          -10.968993186950684,
          -11.672082901000977,
          -19.004573822021484,
          -7.841094017028809,
          -3.467524290084839
        ],
        [
          -6.791093826293945,
          -10.469794273376465,
          5.035305023193359,
          15.218960762023926,
          -3.3358404636383057,
          0.669026255607605,
          3.1067652702331543,
          -11.60025691986084
        ],
        [
          -4.370208263397217,
          -15.211495399475098,
          -2.281461238861084,
          -9.985450744628906,
          12.53024959564209,
          11.227140426635742,
          2.120760917663574,
          9.683150291442871
        ],
        [
          15.90059757232666,
          -8.400402069091797,
          4.333898067474365,
          1.7016916275024414,
          -14.700959205627441,
          -11.941034317016602,
          -5.430516719818115,
          20.498701095581055
        ],
        [
          -9.961424827575684,
          -3.672903537750244,
          -14.423140525817871,
          -4.778989791870117,
          -5.336285591125488,
          3.028425931930542,
          2.797849655151367,
          2.8247323036193848
        ],
        [
          -4.670261383056641,
          -6.71727180480957,
          -7.572873592376709,
          2.8008642196655273,
          3.2678279876708984,
          -6.119969844818115,
          -0.8856141567230225,
          5.578569412231445
        ]
      ],
      "biases": [
        -4.611632347106934,
        -2.481783151626587,
        -1.2746905088424683,
        -0.20341216027736664,
        -5.158470153808594,
        -1.5001630783081055,
        -3.3088481426239014,
        3.8915164470672607,
        -1.1273572444915771
      ]
    }
  ],
  "inputLookup": {
    "is_indonesian": 0,
    "is_english": 1,
    "word_0": 2,
    "trigram_0_0": 3,
    "word_1": 4,
    "trigram_1_0": 5,
    "word_2": 6,
    "word_3": 7,
    "word_4": 8,
    "word_5": 9,
    "word_6": 10,
    "word_7": 11,
    "word_8": 12,
    "word_9": 13,
    "text_length": 14,
    "word_count": 15,
    "avg_word_length": 16,
    "complexity": 17,
    "is_apa": 18,
    "is_bagaimana": 19,
    "is_kenapa": 20,
    "is_kapan": 21,
    "is_dimana": 22,
    "is_siapa": 23,
    "is_berapa": 24,
    "is_help": 25,
    "is_price": 26,
    "is_available": 27,
    "is_payment": 28,
    "is_greeting": 29,
    "is_goodbye": 30,
    "is_refund": 31,
    "is_technical": 32,
    "is_account": 33,
    "is_subscription": 34,
    "is_referral": 35,
    "is_emerging": 36,
    "sentiment": 37,
    "is_positive": 38,
    "is_negative": 39,
    "is_neutral": 40,
    "trigram_0_1": 41,
    "trigram_0_2": 42,
    "trigram_1_1": 43,
    "trigram_2_0": 44,
    "trigram_1_2": 45,
    "trigram_2_1": 46,
    "trigram_2_2": 47,
    "trigram_3_0": 48,
    "trigram_3_1": 49,
    "trigram_3_2": 50,
    "trigram_4_0": 51,
    "trigram_4_1": 52,
    "trigram_4_2": 53
  },
  "inputLookupLength": 54,
  "outputLookup": {
    "tag_greeting": 0,
    "tag_price_inquiry": 1,
    "tag_availability": 2,
    "tag_emerging_services": 3,
    "tag_payment_method": 4,
    "tag_refund_policy": 5,
    "tag_technical_details": 6,
    "tag_referral_loyalty": 7,
    "tag_warranty_refund": 8
  },
  "outputLookupLength": 9,
  "options": {
    "inputSize": 0,
    "outputSize": 0,
    "binaryThresh": 0.5,
    "hiddenLayers": [
      24,
      16,
      8
    ],
    "activation": "sigmoid",
    "learningRate": 0.01,
    "momentum": 0.8,
    "errorThresh": 0.003,
    "dropout": 0.1,
    "batchSize": 32
  },
  "trainOpts": {
    "activation": "sigmoid",
    "iterations": 5000,
    "errorThresh": 0.003,
    "log": true,
    "logPeriod": 100,
    "leakyReluAlpha": 0.01,
    "learningRate": 0.01,
    "momentum": 0.8,
    "callbackPeriod": 10,
    "timeout": "Infinity",
    "beta1": 0.9,
    "beta2": 0.999,
    "epsilon": 1e-8
  }
}